2.999999999999999645e+01 -1.381988908954440588e-03 1.447441790084317680e-03 1.365973046182704072e-03 -1.269977079757006163e-03 0.000000000000000000e+00 0.000000000000000000e+00 0.000000000000000000e+00 0.000000000000000000e+00
3.077729862874822686e+01 -5.136579998327416886e-03 7.796890858230702982e-04 2.918595356729025182e-03 -2.476072180774948565e-03 0.000000000000000000e+00 0.000000000000000000e+00 0.000000000000000000e+00 0.000000000000000000e+00
3.157473702943825344e+01 -4.095279431886584935e-03 5.414297776387959771e-04 2.197342192399417277e-03 -2.772225500797980899e-03 0.000000000000000000e+00 0.000000000000000000e+00 0.000000000000000000e+00 0.000000000000000000e+00
3.239283702264053488e+01 -4.299679666014138632e-03 5.116594388718916564e-04 1.995382717775470542e-03 -2.908650945915052487e-03 0.000000000000000000e+00 0.000000000000000000e+00 0.000000000000000000e+00 0.000000000000000000e+00
3.323213394927265085e+01 -4.173863744150561363e-03 5.190744702531003597e-04 1.962223762898476949e-03 -2.656957083471606085e-03 0.000000000000000000e+00 0.000000000000000000e+00 0.000000000000000000e+00 0.000000000000000000e+00
3.409317702091090752e+01 -4.044225970696862550e-03 5.198434347377127104e-04 2.000000362041580784e-03 -2.697725061620918647e-03 0.000000000000000000e+00 0.000000000000000000e+00 0.000000000000000000e+00 0.000000000000000000e+00
3.497652967917839817e+01 -4.288273029568783618e-03 5.797317410182612884e-04 2.043868703980576424e-03 -2.709818223051951597e-03 0.000000000000000000e+00 0.000000000000000000e+00 0.000000000000000000e+00 0.000000000000000000e+00
3.588276996444496802e+01 -3.992885044608015035e-03 5.484577513664737293e-04 2.010817847425575271e-03 -2.736621012987913108e-03 0.000000000000000000e+00 0.000000000000000000e+00 0.000000000000000000e+00 0.000000000000000000e+00
3.681249089408001396e+01 -4.077357163399920534e-03 5.380246618909411555e-04 1.982020108059067039e-03 -2.748852125579405795e-03 0.000000000000000000e+00 0.000000000000000000e+00 0.000000000000000000e+00 0.000000000000000000e+00
3.776630085050584995e+01 -3.982389812366169367e-03 5.495344045466255423e-04 2.032893937295085322e-03 -2.741987923169270178e-03 0.000000000000000000e+00 0.000000000000000000e+00 0.000000000000000000e+00 0.000000000000000000e+00
3.874482397930556488e+01 -4.064522263050093960e-03 5.310077934075071266e-04 1.999542711648871762e-03 -2.753726650001812968e-03 0.000000000000000000e+00 0.000000000000000000e+00 0.000000000000000000e+00 0.000000000000000000e+00
3.974870059764575814e+01 -4.047583838730527302e-03 5.454822797156409688e-04 1.998027555103564119e-03 -2.774510541366779093e-03 0.000000000000000000e+00 0.000000000000000000e+00 0.000000000000000000e+00 0.000000000000000000e+00
4.077858761328155879e+01 -4.067375155599330105e-03 5.420073433842263842e-04 1.982024591409993659e-03 -2.773017167910384832e-03 0.000000000000000000e+00 0.000000000000000000e+00 0.000000000000000000e+00 0.000000000000000000e+00
4.183515895441802712e+01 -3.998950753183418659e-03 5.193132409458141698e-04 1.964079955487172974e-03 -2.720353253624345925e-03 0.000000000000000000e+00 0.000000000000000000e+00 0.000000000000000000e+00 0.000000000000000000e+00
4.291910601070914311e+01 -4.092167914951956066e-03 5.422916040342824198e-04 1.989989803257207444e-03 -2.786949022436434158e-03 0.000000000000000000e+00 0.000000000000000000e+00 0.000000000000000000e+00 0.000000000000000000e+00
4.403113808568328125e+01 -4.080560123592997385e-03 5.443694938515569303e-04 1.999682455489078334e-03 -2.784383782429274666e-03 0.000000000000000000e+00 0.000000000000000000e+00 0.000000000000000000e+00 0.000000000000000000e+00
4.517198286089080028e+01 -4.073743647508041438e-03 5.279733817960212796e-04 2.000870511689167679e-03 -2.770686814261955674e-03 0.000000000000000000e+00 0.000000000000000000e+00 0.000000000000000000e+00 0.000000000000000000e+00
4.634238687207776763e+01 -4.030314958374808451e-03 5.339201529391109308e-04 1.964440988576386139e-03 -2.753839001902990899e-03 0.000000000000000000e+00 0.000000000000000000e+00 0.000000000000000000e+00 0.000000000000000000e+00
4.754311599769730634e+01 -4.025193087007483510e-03 5.320545906908263423e-04 1.982337466360614437e-03 -2.724344506947038672e-03 0.000000000000000000e+00 0.000000000000000000e+00 0.000000000000000000e+00 0.000000000000000000e+00
4.877495596007824474e+01 -4.042686172608180549e-03 5.376107884360144988e-04 1.979217331100854328e-03 -2.718242051283907730e-03 0.000000000000000000e+00 0.000000000000000000e+00 0.000000000000000000e+00 0.000000000000000000e+00
5.003871283957905547e+01 -4.082658059371112487e-03 5.355100881315677996e-04 1.992769824206248094e-03 -2.772793019015656630e-03 0.000000000000000000e+00 0.000000000000000000e+00 0.000000000000000000e+00 0.000000000000000000e+00
5.133521360206343331e+01 -4.075189021263819593e-03 5.438034393030005903e-04 2.015914451862684583e-03 -2.781834782951534291e-03 0.000000000000000000e+00 0.000000000000000000e+00 0.000000000000000000e+00 0.000000000000000000e+00
5.266530664004284290e+01 -4.091817439489994074e-03 5.378034650394992056e-04 2.009194231274017469e-03 -2.797766026945385735e-03 0.000000000000000000e+00 0.000000000000000000e+00 0.000000000000000000e+00 0.000000000000000000e+00
5.402986232783985798e+01 -4.056350890497417358e-03 5.373463960315619974e-04 2.000288928637016482e-03 -2.781460878093406502e-03 0.000000000000000000e+00 0.000000000000000000e+00 0.000000000000000000e+00 0.000000000000000000e+00
5.542977359113604052e+01 -4.045795456966201457e-03 5.355390465162444390e-04 1.992584315691273839e-03 -2.755818223176822231e-03 0.000000000000000000e+00 0.000000000000000000e+00 0.000000000000000000e+00 0.000000000000000000e+00
5.686595649127654184e+01 -4.126824616618895124e-03 5.391151900107098074e-04 2.017822803645367979e-03 -2.778859251880059621e-03 0.000000000000000000e+00 0.000000000000000000e+00 0.000000000000000000e+00 0.000000000000000000e+00
5.833935082471406730e+01 -4.042278304537143610e-03 5.394579095982266230e-04 1.993550269217098450e-03 -2.763519862351590615e-03 0.000000000000000000e+00 0.000000000000000000e+00 0.000000000000000000e+00 0.000000000000000000e+00
5.985092073798448098e+01 -4.067499388624684978e-03 5.376092045717656507e-04 1.987230004388158226e-03 -2.769275551778397140e-03 0.000000000000000000e+00 0.000000000000000000e+00 0.000000000000000000e+00 0.000000000000000000e+00
6.140165535861629564e+01 -4.066365941892008569e-03 5.404180457864232387e-04 1.991643023264953304e-03 -2.764141763030076096e-03 0.000000000000000000e+00 0.000000000000000000e+00 0.000000000000000000e+00 0.000000000000000000e+00
6.299256944238712208e+01 -4.108903883726955017e-03 5.430592848540928205e-04 2.016344794626451220e-03 -2.789567021885354815e-03 0.000000000000000000e+00 0.000000000000000000e+00 0.000000000000000000e+00 0.000000000000000000e+00
6.462470403735026991e+01 -4.100607302504343660e-03 5.457928674119255121e-04 2.002624424947280213e-03 -2.792778642610117129e-03 0.000000000000000000e+00 0.000000000000000000e+00 0.000000000000000000e+00 0.000000000000000000e+00
6.629912716506672155e+01 -4.094179224504708968e-03 5.351375726376780351e-04 2.000876992184810396e-03 -2.772669418856958841e-03 0.000000000000000000e+00 0.000000000000000000e+00 0.000000000000000000e+00 0.000000000000000000e+00
6.801693451948709424e+01 -4.085691789496762039e-03 5.358472143205844944e-04 2.010541180689979709e-03 -2.770967061816671621e-03 0.000000000000000000e+00 0.000000000000000000e+00 0.000000000000000000e+00 0.000000000000000000e+00
6.977925018394226697e+01 -4.097642462314450042e-03 5.349871749854846585e-04 2.016191822232126212e-03 -2.775621129595495177e-03 0.000000000000000000e+00 0.000000000000000000e+00 0.000000000000000000e+00 0.000000000000000000e+00
7.158722736671087716e+01 -4.047354914025642902e-03 5.355810589125725545e-04 2.007074319152677561e-03 -2.750601501366135328e-03 0.000000000000000000e+00 0.000000000000000000e+00 0.000000000000000000e+00 0.000000000000000000e+00
7.344204915564527880e+01 -4.085854013525368200e-03 5.417951441271423758e-04 2.021443820310548593e-03 -2.788688464508206743e-03 0.000000000000000000e+00 0.000000000000000000e+00 0.000000000000000000e+00 0.000000000000000000e+00
7.534492929235005931e+01 -4.088690974675996889e-03 5.439532879111771187e-04 2.006421125244716927e-03 -2.774251601169861001e-03 0.000000000000000000e+00 0.000000000000000000e+00 0.000000000000000000e+00 0.000000000000000000e+00
7.729711296641926310e+01 -4.065583950183859763e-03 5.361661272344650725e-04 1.992136162327107739e-03 -2.774285612406784604e-03 0.000000000000000000e+00 0.000000000000000000e+00 0.000000000000000000e+00 0.000000000000000000e+00
7.929987763025246750e+01 -4.065584246950784165e-03 5.344662272667046301e-04 2.029429871268938201e-03 -2.760724116243390772e-03 0.000000000000000000e+00 0.000000000000000000e+00 0.000000000000000000e+00 0.000000000000000000e+00
8.135453383498234814e+01 -4.097224691822373699e-03 5.370258470176750764e-04 2.022377062614313589e-03 -2.788598888255626809e-03 0.000000000000000000e+00 0.000000000000000000e+00 0.000000000000000000e+00 0.000000000000000000e+00
8.346242608806184649e+01 -4.137304170676111767e-03 5.444232716949252808e-04 2.039468600121800788e-03 -2.794206354065171313e-03 0.000000000000000000e+00 0.000000000000000000e+00 0.000000000000000000e+00 0.000000000000000000e+00
8.562493373307020761e+01 -4.104032670004640823e-03 5.385043670970295114e-04 2.014857629232288342e-03 -2.793740888165631604e-03 0.000000000000000000e+00 0.000000000000000000e+00 0.000000000000000000e+00 0.000000000000000000e+00
8.784347185231600008e+01 -4.084683757035319392e-03 5.416463672261265802e-04 2.015656933770224122e-03 -2.814165285862258326e-03 0.000000000000000000e+00 0.000000000000000000e+00 0.000000000000000000e+00 0.000000000000000000e+00
9.011949219282563206e+01 -4.098610833280689168e-03 5.434748877835923623e-04 2.016527759318265112e-03 -2.786646758128017223e-03 0.000000000000000000e+00 0.000000000000000000e+00 0.000000000000000000e+00 0.000000000000000000e+00
9.245448411632465024e+01 -4.133026873413836629e-03 5.352727449456578341e-04 2.016817084643460385e-03 -2.789505471966230270e-03 0.000000000000000000e+00 0.000000000000000000e+00 0.000000000000000000e+00 0.000000000000000000e+00
9.484997557383279343e+01 -4.126802264270503645e-03 5.421128180800093097e-04 2.035528366996343461e-03 -2.823030752578217870e-03 0.000000000000000000e+00 0.000000000000000000e+00 0.000000000000000000e+00 0.000000000000000000e+00
9.730753410551091065e+01 -4.151312208946173615e-03 5.423692608885799559e-04 2.053907106106879574e-03 -2.821307969961647788e-03 0.000000000000000000e+00 0.000000000000000000e+00 0.000000000000000000e+00 0.000000000000000000e+00
9.982876786641379852e+01 -4.158091443455178005e-03 5.457400590325909521e-04 2.050931154565029807e-03 -2.825788982382738609e-03 0.000000000000000000e+00 0.000000000000000000e+00 0.000000000000000000e+00 0.000000000000000000e+00
1.024153266788200511e+02 -4.135655417690192563e-03 5.463602926610060728e-04 2.045880451033756705e-03 -2.828207857898161048e-03 0.000000000000000000e+00 0.000000000000000000e+00 0.000000000000000000e+00 0.000000000000000000e+00
1.050689031118284049e+02 -4.189189535911968729e-03 5.484696278001448743e-04 2.064611526284347749e-03 -2.855942209192446988e-03 0.000000000000000000e+00 0.000000000000000000e+00 0.000000000000000000e+00 0.000000000000000000e+00
1.077912335889252944e+02 -4.136101397930327245e-03 5.422862340905011116e-04 2.050377575659079361e-03 -2.816266607909665310e-03 0.000000000000000000e+00 0.000000000000000000e+00 0.000000000000000000e+00 0.000000000000000000e+00
1.105840995242503055e+02 -4.139488152468537990e-03 5.417518760918844066e-04 2.044335866188992917e-03 -2.817633074845301774e-03 0.000000000000000000e+00 0.000000000000000000e+00 0.000000000000000000e+00 0.000000000000000000e+00
1.134493284883021715e+02 -4.223701419637104423e-03 5.494925708697923593e-04 2.081993537247966465e-03 -2.867378234293497218e-03 0.000000000000000000e+00 0.000000000000000000e+00 0.000000000000000000e+00 0.000000000000000000e+00
1.163887954038477233e+02 -4.259812316916571952e-03 5.569949654569869265e-04 2.090268638930222259e-03 -2.863498700735857272e-03 0.000000000000000000e+00 0.000000000000000000e+00 0.000000000000000000e+00 0.000000000000000000e+00
1.194044237728167701e+02 -4.209334511633265608e-03 5.486290549991159607e-04 2.072170084247532476e-03 -2.856295823641527391e-03 0.000000000000000000e+00 0.000000000000000000e+00 0.000000000000000000e+00 0.000000000000000000e+00
1.224981869349861370e+02 -4.256103783850431407e-03 5.575541960079153378e-04 2.079992951318788193e-03 -2.891240606027783728e-03 0.000000000000000000e+00 0.000000000000000000e+00 0.000000000000000000e+00 0.000000000000000000e+00
1.256721093592765186e+02 -4.279690039128795746e-03 5.611370108784393892e-04 2.110258563459171954e-03 -2.900804265406229862e-03 0.000000000000000000e+00 0.000000000000000000e+00 0.000000000000000000e+00 0.000000000000000000e+00
1.289282679685052244e+02 -4.325162504644043150e-03 5.649877121640184885e-04 2.123060582529546266e-03 -2.921621832257819632e-03 0.000000000000000000e+00 0.000000000000000000e+00 0.000000000000000000e+00 0.000000000000000000e+00
1.322687934984654134e+02 -4.225972055735492325e-03 5.504364326423834665e-04 2.089015611881953147e-03 -2.876432007568439746e-03 0.000000000000000000e+00 0.000000000000000000e+00 0.000000000000000000e+00 0.000000000000000000e+00
1.356958718922167009e+02 -4.274424382878195920e-03 5.579963529681129103e-04 2.126126173753790320e-03 -2.904017235184486959e-03 0.000000000000000000e+00 0.000000000000000000e+00 0.000000000000000000e+00 0.000000000000000000e+00
1.392117457305039352e+02 -4.338005417458846817e-03 5.637282609971402351e-04 2.128414975016229994e-03 -2.931396706979430035e-03 0.000000000000000000e+00 0.000000000000000000e+00 0.000000000000000000e+00 0.000000000000000000e+00
1.428187156992362929e+02 -4.357544931032165947e-03 5.773753585675393558e-04 2.163460737403507476e-03 -2.964750269760068821e-03 0.000000000000000000e+00 0.000000000000000000e+00 0.000000000000000000e+00 0.000000000000000000e+00
1.465191420949895473e+02 -4.375330356000500971e-03 5.736361170283415340e-04 2.148805828205391146e-03 -2.977820699507959315e-03 0.000000000000000000e+00 0.000000000000000000e+00 0.000000000000000000e+00 0.000000000000000000e+00
1.503154463695163940e+02 -4.361377584421218499e-03 5.621523976891926741e-04 2.139189972092105270e-03 -2.953672916600499129e-03 0.000000000000000000e+00 0.000000000000000000e+00 0.000000000000000000e+00 0.000000000000000000e+00
1.542101127142730945e+02 -4.383186012000046643e-03 5.722620022942893556e-04 2.167520383710886886e-03 -2.954903263412237812e-03 0.000000000000000000e+00 0.000000000000000000e+00 0.000000000000000000e+00 0.000000000000000000e+00
1.582056896860036659e+02 -4.341158790973891762e-03 5.795267938922253094e-04 2.166472792441310937e-03 -2.979597362159604450e-03 0.000000000000000000e+00 0.000000000000000000e+00 0.000000000000000000e+00 0.000000000000000000e+00
1.623047918744402125e+02 -4.454015428432330816e-03 5.770927599580474160e-04 2.204062336553704732e-03 -3.001651121496733826e-03 0.000000000000000000e+00 0.000000000000000000e+00 0.000000000000000000e+00 0.000000000000000000e+00
1.665101016132159373e+02 -4.487786277456625936e-03 5.842765850833851705e-04 2.223460606691297047e-03 -3.063238144287105946e-03 0.000000000000000000e+00 0.000000000000000000e+00 0.000000000000000000e+00 0.000000000000000000e+00
1.708243707351053899e+02 -4.443878409180569700e-03 5.821247983659311436e-04 2.191326863152744109e-03 -2.992376495236966603e-03 0.000000000000000000e+00 0.000000000000000000e+00 0.000000000000000000e+00 0.000000000000000000e+00
1.752504223727445378e+02 -4.484019853948214770e-03 5.866998050600071447e-04 2.215820070739485739e-03 -3.028164838025520361e-03 0.000000000000000000e+00 0.000000000000000000e+00 0.000000000000000000e+00 0.000000000000000000e+00
1.797911528060072044e+02 -4.559028603838283754e-03 5.913874790260444927e-04 2.270411846576717973e-03 -3.079300096500695982e-03 0.000000000000000000e+00 0.000000000000000000e+00 0.000000000000000000e+00 0.000000000000000000e+00
1.844495333572463949e+02 -4.501858718406488886e-03 5.882471989084940263e-04 2.263223570167078452e-03 -3.075176636138010101e-03 0.000000000000000000e+00 0.000000000000000000e+00 0.000000000000000000e+00 0.000000000000000000e+00
1.892286123356411451e+02 -4.583058643222392980e-03 6.021489983905041086e-04 2.287274147676111955e-03 -3.080726394803306577e-03 0.000000000000000000e+00 0.000000000000000000e+00 0.000000000000000000e+00 0.000000000000000000e+00
1.941315170319218453e+02 -4.587682032007456626e-03 6.017322773571693543e-04 2.305864525756870682e-03 -3.126327807558561614e-03 0.000000000000000000e+00 0.000000000000000000e+00 0.000000000000000000e+00 0.000000000000000000e+00
1.991614557647795039e+02 -4.611570425558744225e-03 6.100192111945995166e-04 2.305076131268593738e-03 -3.125044397334296540e-03 0.000000000000000000e+00 0.000000000000000000e+00 0.000000000000000000e+00 0.000000000000000000e+00
2.043217199802951143e+02 -4.682229573525892134e-03 6.097644490551535745e-04 2.341533679467799542e-03 -3.165559077191014512e-03 0.000000000000000000e+00 0.000000000000000000e+00 0.000000000000000000e+00 0.000000000000000000e+00
2.096156864057671214e+02 -4.700325953173910450e-03 6.151690447767952730e-04 2.361330999510659161e-03 -3.187412386904585337e-03 0.000000000000000000e+00 0.000000000000000000e+00 0.000000000000000000e+00 0.000000000000000000e+00
2.150468192593444030e+02 -4.702234656681419760e-03 6.182754956713992691e-04 2.351819733531261992e-03 -3.171894830881954140e-03 0.000000000000000000e+00 0.000000000000000000e+00 0.000000000000000000e+00 0.000000000000000000e+00
2.206186725169097542e+02 -4.726816162785326889e-03 6.241260709937898610e-04 2.407364582588179900e-03 -3.252772289505124429e-03 0.000000000000000000e+00 0.000000000000000000e+00 0.000000000000000000e+00 0.000000000000000000e+00
2.263348922376981704e+02 -4.733303737024440946e-03 6.240471787669827405e-04 2.413608254987389522e-03 -3.229573680782483677e-03 0.000000000000000000e+00 0.000000000000000000e+00 0.000000000000000000e+00 0.000000000000000000e+00
2.321992189501727921e+02 -4.775300562761854162e-03 6.342708568307175261e-04 2.450648277345974461e-03 -3.266829887118960496e-03 0.000000000000000000e+00 0.000000000000000000e+00 0.000000000000000000e+00 0.000000000000000000e+00
2.382154900997188918e+02 -4.843595180467366763e-03 6.435421060839757908e-04 2.456865893295539453e-03 -3.299185407047296528e-03 0.000000000000000000e+00 0.000000000000000000e+00 0.000000000000000000e+00 0.000000000000000000e+00
2.443876425597554203e+02 -4.862293721638205092e-03 6.466857264073976996e-04 2.481881051279071718e-03 -3.328752961939490662e-03 0.000000000000000000e+00 0.000000000000000000e+00 0.000000000000000000e+00 0.000000000000000000e+00
2.507197152079125715e+02 -4.896595462838531504e-03 6.616099208001281632e-04 2.563015139302310223e-03 -3.359447605544732627e-03 0.000000000000000000e+00 0.000000000000000000e+00 0.000000000000000000e+00 0.000000000000000000e+00
2.572158515689543492e+02 -4.936387408579928117e-03 6.573160324108119016e-04 2.523393573436656309e-03 -3.341951581432202421e-03 0.000000000000000000e+00 0.000000000000000000e+00 0.000000000000000000e+00 0.000000000000000000e+00
2.638803025261830726e+02 -4.919739229082888306e-03 6.545391544155665852e-04 2.535155747548334740e-03 -3.374736826842324785e-03 0.000000000000000000e+00 0.000000000000000000e+00 0.000000000000000000e+00 0.000000000000000000e+00
2.707174291030922291e+02 -4.921617086713118115e-03 6.603298096966527973e-04 2.539331986548352699e-03 -3.375104889930950845e-03 0.000000000000000000e+00 0.000000000000000000e+00 0.000000000000000000e+00 0.000000000000000000e+00
2.777317053170947361e+02 -5.020653503395996684e-03 6.706433993175884992e-04 2.580565282634997380e-03 -3.397527348298953059e-03 0.000000000000000000e+00 0.000000000000000000e+00 0.000000000000000000e+00 0.000000000000000000e+00
2.849277211071910756e+02 -4.941384825861831233e-03 6.714510722311514994e-04 2.565248008590701075e-03 -3.410653408084600002e-03 0.000000000000000000e+00 0.000000000000000000e+00 0.000000000000000000e+00 0.000000000000000000e+00
2.923101853374901680e+02 -4.970049235775762450e-03 6.784154095586965565e-04 2.583587051833989394e-03 -3.416153670080531324e-03 0.000000000000000000e+00 0.000000000000000000e+00 0.000000000000000000e+00 0.000000000000000000e+00
2.998839288785561052e+02 -4.977909559102165586e-03 6.740366118087700231e-04 2.605318943334568142e-03 -3.390932498315688774e-03 0.000000000000000000e+00 0.000000000000000000e+00 0.000000000000000000e+00 0.000000000000000000e+00
3.076539077685870893e+02 -4.946973027074772454e-03 6.817953903695314188e-04 2.595052369312403177e-03 -3.362717643527214900e-03 0.000000000000000000e+00 0.000000000000000000e+00 0.000000000000000000e+00 0.000000000000000000e+00
3.156252064565057935e+02 -4.932494218345818797e-03 6.805557234446485936e-04 2.602116518060466725e-03 -3.378138286239353982e-03 0.000000000000000000e+00 0.000000000000000000e+00 0.000000000000000000e+00 0.000000000000000000e+00
3.238030411290732786e+02 -4.856207962245570955e-03 6.822684410112413948e-04 2.598126122037777101e-03 -3.363065664571735034e-03 0.000000000000000000e+00 0.000000000000000000e+00 0.000000000000000000e+00 0.000000000000000000e+00
3.321927631242110124e+02 -4.860948469239837443e-03 6.780481316291410692e-04 2.606195903065889382e-03 -3.336254548425542695e-03 0.000000000000000000e+00 0.000000000000000000e+00 0.000000000000000000e+00 0.000000000000000000e+00
3.407998624327619837e+02 -4.739249200932939624e-03 6.719747914420477362e-04 2.590830254583520627e-03 -3.306324679585661425e-03 0.000000000000000000e+00 0.000000000000000000e+00 0.000000000000000000e+00 0.000000000000000000e+00
3.496299712909812456e+02 -4.787603099558486973e-03 6.716398004564469188e-04 2.580479043036289482e-03 -3.310090170195222406e-03 0.000000000000000000e+00 0.000000000000000000e+00 0.000000000000000000e+00 0.000000000000000000e+00
3.586888678661068752e+02 -4.749576575094482597e-03 6.716732185526113567e-04 2.580483099419211314e-03 -3.280976867098860713e-03 0.000000000000000000e+00 0.000000000000000000e+00 0.000000000000000000e+00 0.000000000000000000e+00
3.679824800374260008e+02 -4.704862999315575361e-03 6.738022557586246034e-04 2.541345230833180670e-03 -3.228484598972417453e-03 0.000000000000000000e+00 0.000000000000000000e+00 0.000000000000000000e+00 0.000000000000000000e+00
3.775168892753083583e+02 -4.613110215705206428e-03 6.614009458209387437e-04 2.558832589389002481e-03 -3.220884129078635614e-03 0.000000000000000000e+00 0.000000000000000000e+00 0.000000000000000000e+00 0.000000000000000000e+00
3.872983346207417412e+02 -4.594692693377244556e-03 6.643325362802472147e-04 2.540134919309610956e-03 -3.174092418761359242e-03 0.000000000000000000e+00 0.000000000000000000e+00 0.000000000000000000e+00 0.000000000000000000e+00
3.973332167679807299e+02 -4.496788039136470801e-03 6.622841202843715103e-04 2.528212239524766942e-03 -3.144868633119958252e-03 0.000000000000000000e+00 0.000000000000000000e+00 0.000000000000000000e+00 0.000000000000000000e+00
4.076281022529763618e+02 -4.452853213295030615e-03 6.485994376668852927e-04 2.476184496033022146e-03 -3.082467864806102791e-03 0.000000000000000000e+00 0.000000000000000000e+00 0.000000000000000000e+00 0.000000000000000000e+00
4.181897277503260284e+02 -4.411859770980819731e-03 6.465712782534935700e-04 2.444730512983357175e-03 -3.073071542771269905e-03 0.000000000000000000e+00 0.000000000000000000e+00 0.000000000000000000e+00 0.000000000000000000e+00
4.290250044815570618e+02 -4.324105168938185452e-03 6.451815323315932904e-04 2.419410066138545472e-03 -3.027851508301501390e-03 0.000000000000000000e+00 0.000000000000000000e+00 0.000000000000000000e+00 0.000000000000000000e+00
4.401410227376307489e+02 -4.301139139914879859e-03 6.353732828017415006e-04 2.415980619887609857e-03 -2.994458168889319385e-03 0.000000000000000000e+00 0.000000000000000000e+00 0.000000000000000000e+00 0.000000000000000000e+00
4.515450565186239942e+02 -4.172986245563421216e-03 6.300453309032699300e-04 2.389191870549133359e-03 -2.927937063191585892e-03 0.000000000000000000e+00 0.000000000000000000e+00 0.000000000000000000e+00 0.000000000000000000e+00
4.632445682936236722e+02 -4.126518216933100849e-03 6.224182928071174360e-04 2.330588135834316208e-03 -2.851188936767822760e-03 0.000000000000000000e+00 0.000000000000000000e+00 0.000000000000000000e+00 0.000000000000000000e+00
4.752472138839468130e+02 -4.050579401810528758e-03 6.133745297986656310e-04 2.302062392049404778e-03 -2.835213128742347568e-03 0.000000000000000000e+00 0.000000000000000000e+00 0.000000000000000000e+00 0.000000000000000000e+00
4.875608474728934993e+02 -4.059349196879074965e-03 6.119207726598448064e-04 2.316041905732885414e-03 -2.820373478844583059e-03 0.000000000000000000e+00 0.000000000000000000e+00 0.000000000000000000e+00 0.000000000000000000e+00
5.001935267452939797e+02 -3.961125733800589105e-03 6.053793961411487118e-04 2.258919557070959098e-03 -2.768999472479343263e-03 0.000000000000000000e+00 0.000000000000000000e+00 0.000000000000000000e+00 0.000000000000000000e+00
5.131535181602228022e+02 -3.878299332912636243e-03 5.977110248303457978e-04 2.250216233850917125e-03 -2.717554202913701963e-03 0.000000000000000000e+00 0.000000000000000000e+00 0.000000000000000000e+00 0.000000000000000000e+00
5.264493023603316715e+02 -3.866982237908725417e-03 5.990225931863590262e-04 2.223188951530737957e-03 -2.727471781275941486e-03 0.000000000000000000e+00 0.000000000000000000e+00 0.000000000000000000e+00 0.000000000000000000e+00
5.400895797213363494e+02 -3.822033894425381269e-03 5.953600544994522249e-04 2.221108785546010902e-03 -2.690522162800274876e-03 0.000000000000000000e+00 0.000000000000000000e+00 0.000000000000000000e+00 0.000000000000000000e+00
5.540832760452900629e+02 -3.747270594791559349e-03 5.862458059277917289e-04 2.161577625681065148e-03 -2.614357233268528070e-03 0.000000000000000000e+00 0.000000000000000000e+00 0.000000000000000000e+00 0.000000000000000000e+00
5.684395484013680289e+02 -3.686372740812047816e-03 5.836246638592946113e-04 2.147420807166130086e-03 -2.603550699712763039e-03 0.000000000000000000e+00 0.000000000000000000e+00 0.000000000000000000e+00 0.000000000000000000e+00
5.831677911179893954e+02 -3.646775647648786266e-03 5.793978675324892554e-04 2.136356252413293671e-03 -2.580130412024009019e-03 0.000000000000000000e+00 0.000000000000000000e+00 0.000000000000000000e+00 0.000000000000000000e+00
5.982776419301945907e+02 -3.600101854355528680e-03 5.750347646164517346e-04 2.121215255759282756e-03 -2.531003629791090358e-03 0.000000000000000000e+00 0.000000000000000000e+00 0.000000000000000000e+00 0.000000000000000000e+00
6.137789882862971353e+02 -3.564355188677616887e-03 5.713570912796369370e-04 2.106018220137950269e-03 -2.508038084809910591e-03 0.000000000000000000e+00 0.000000000000000000e+00 0.000000000000000000e+00 0.000000000000000000e+00
6.296819738179440265e+02 -3.438330173376440667e-03 5.648527491988581360e-04 2.081557133990858278e-03 -2.449665528506904215e-03 0.000000000000000000e+00 0.000000000000000000e+00 0.000000000000000000e+00 0.000000000000000000e+00
6.459970049778158909e+02 -3.383991465172220443e-03 5.597618388994753677e-04 2.051250500654809399e-03 -2.397013886992086038e-03 0.000000000000000000e+00 0.000000000000000000e+00 0.000000000000000000e+00 0.000000000000000000e+00
6.627347578493069022e+02 -3.342614632337635207e-03 5.545682720678497693e-04 2.037992381709731286e-03 -2.358496781533980183e-03 0.000000000000000000e+00 0.000000000000000000e+00 0.000000000000000000e+00 0.000000000000000000e+00
6.799061851326425767e+02 -3.245756604396218218e-03 5.522865523575183708e-04 2.005494955946932317e-03 -2.307699982424683133e-03 0.000000000000000000e+00 0.000000000000000000e+00 0.000000000000000000e+00 0.000000000000000000e+00
6.975225233120103212e+02 -3.135785669398063330e-03 5.443371274665996561e-04 1.956929731639934448e-03 -2.254677673812733110e-03 0.000000000000000000e+00 0.000000000000000000e+00 0.000000000000000000e+00 0.000000000000000000e+00
7.155953000083917459e+02 -3.083680225270750506e-03 5.343741501287247765e-04 1.947649749041685746e-03 -2.202528394796770400e-03 0.000000000000000000e+00 0.000000000000000000e+00 0.000000000000000000e+00 0.000000000000000000e+00
7.341363415228988742e+02 -2.970997020781107698e-03 5.240243783351209318e-04 1.886762384213128488e-03 -2.150217824960508166e-03 0.000000000000000000e+00 0.000000000000000000e+00 0.000000000000000000e+00 0.000000000000000000e+00
7.531577805755648569e+02 -2.877533126237050588e-03 5.117664409305903040e-04 1.849458879836638229e-03 -2.070285168161020099e-03 0.000000000000000000e+00 0.000000000000000000e+00 0.000000000000000000e+00 0.000000000000000000e+00
7.726720642446460943e+02 -2.772488094983367995e-03 4.993416890411181506e-04 1.820544447927904515e-03 -2.001189792892472605e-03 0.000000000000000000e+00 0.000000000000000000e+00 0.000000000000000000e+00 0.000000000000000000e+00
7.926919621116275039e+02 -2.698788081680689264e-03 4.945853199863876155e-04 1.759178767492871037e-03 -1.955908183311345395e-03 0.000000000000000000e+00 0.000000000000000000e+00 0.000000000000000000e+00 0.000000000000000000e+00
8.132305746172650061e+02 -2.603759563155625192e-03 4.865925610245375827e-04 1.736141152103346267e-03 -1.918065905213867453e-03 0.000000000000000000e+00 0.000000000000000000e+00 0.000000000000000000e+00 0.000000000000000000e+00
8.343013416341357242e+02 -2.562929587591234164e-03 4.794641086257493212e-04 1.696977223951687611e-03 -1.859217477255326869e-03 0.000000000000000000e+00 0.000000000000000000e+00 0.000000000000000000e+00 0.000000000000000000e+00
8.559180512613028213e+02 -2.471817004916756957e-03 4.666524598324033458e-04 1.664321512340530100e-03 -1.804609954052094692e-03 0.000000000000000000e+00 0.000000000000000000e+00 0.000000000000000000e+00 0.000000000000000000e+00
8.780948488468455935e+02 -2.418143210197911796e-03 4.640046633838494378e-04 1.659071395167024130e-03 -1.772952734909486513e-03 0.000000000000000000e+00 0.000000000000000000e+00 0.000000000000000000e+00 0.000000000000000000e+00
9.008462462441639218e+02 -2.342220048135066138e-03 4.612457507376331849e-04 1.623970341494648069e-03 -1.725899681265773535e-03 0.000000000000000000e+00 0.000000000000000000e+00 0.000000000000000000e+00 0.000000000000000000e+00
9.241871313081161361e+02 -2.254998619058908114e-03 4.481304717957062698e-04 1.595453512314358837e-03 -1.684256527114904971e-03 0.000000000000000000e+00 0.000000000000000000e+00 0.000000000000000000e+00 0.000000000000000000e+00
9.481327776372020253e+02 -2.167210240786663321e-03 4.421143460661565959e-04 1.562652472480290230e-03 -1.613477415686620205e-03 0.000000000000000000e+00 0.000000000000000000e+00 0.000000000000000000e+00 0.000000000000000000e+00
9.726988545681574578e+02 -2.103650607571061915e-03 4.381642620281430540e-04 1.552962519095287116e-03 -1.588757777144776369e-03 0.000000000000000000e+00 0.000000000000000000e+00 0.000000000000000000e+00 0.000000000000000000e+00
9.979014374295170455e+02 -1.977764201412327699e-03 4.319278770642981141e-04 1.534841967618901350e-03 -1.538056653617443474e-03 0.000000000000000000e+00 0.000000000000000000e+00 0.000000000000000000e+00 0.000000000000000000e+00
1.023757018060844985e+03 -1.861549175206837639e-03 4.132583500938489369e-04 1.472641656145533100e-03 -1.436845814218226658e-03 0.000000000000000000e+00 0.000000000000000000e+00 0.000000000000000000e+00 0.000000000000000000e+00
1.050282515604514629e+03 -1.819970356293674433e-03 4.108564475345331661e-04 1.445225323587550053e-03 -1.393273250666137364e-03 0.000000000000000000e+00 0.000000000000000000e+00 0.000000000000000000e+00 0.000000000000000000e+00
1.077495287577102999e+03 -1.681789759786342289e-03 3.953598234147111647e-04 1.382569712430125903e-03 -1.304964714708564287e-03 0.000000000000000000e+00 0.000000000000000000e+00 0.000000000000000000e+00 0.000000000000000000e+00
1.105413141227647884e+03 -1.567092690801534646e-03 3.930733963228156256e-04 1.356987215903460511e-03 -1.257904931041882272e-03 0.000000000000000000e+00 0.000000000000000000e+00 0.000000000000000000e+00 0.000000000000000000e+00
1.134054345190199228e+03 -1.433263287087686464e-03 3.820552261518793012e-04 1.328838467513014567e-03 -1.187380538099969780e-03 0.000000000000000000e+00 0.000000000000000000e+00 0.000000000000000000e+00 0.000000000000000000e+00
1.163437641438277069e+03 -1.344460495533328576e-03 3.648947665596095642e-04 1.283273592314958288e-03 -1.114790004963171852e-03 0.000000000000000000e+00 0.000000000000000000e+00 0.000000000000000000e+00 0.000000000000000000e+00
1.193582257549078122e+03 -1.292220769643834949e-03 3.584234766773934330e-04 1.255127349744326361e-03 -1.072017671484328406e-03 0.000000000000000000e+00 0.000000000000000000e+00 0.000000000000000000e+00 0.000000000000000000e+00
1.224507919285447997e+03 -1.199997447127096372e-03 3.513540836313160218e-04 1.246973971397137603e-03 -1.019463745706588025e-03 0.000000000000000000e+00 0.000000000000000000e+00 0.000000000000000000e+00 0.000000000000000000e+00
1.256234863503846327e+03 -1.103868556569715482e-03 3.431109962885195517e-04 1.201750598053160507e-03 -9.672482434761869993e-04 0.000000000000000000e+00 0.000000000000000000e+00 0.000000000000000000e+00 0.000000000000000000e+00
1.288783851396755608e+03 -1.014241266022552004e-03 3.384170740562589372e-04 1.182426966596753252e-03 -9.059308074531444892e-04 0.000000000000000000e+00 0.000000000000000000e+00 0.000000000000000000e+00 0.000000000000000000e+00
1.322176182078207148e+03 -9.094135565544320728e-04 3.276243819846036084e-04 1.146738357872724521e-03 -8.446887717260218595e-04 0.000000000000000000e+00 0.000000000000000000e+00 0.000000000000000000e+00 0.000000000000000000e+00
1.356433706521305112e+03 -8.081160104068893252e-04 3.258337197752782612e-04 1.130827280377070133e-03 -7.959252814353692113e-04 0.000000000000000000e+00 0.000000000000000000e+00 0.000000000000000000e+00 0.000000000000000000e+00
1.391578841856870213e+03 -7.200998403604105770e-04 3.166501516420390668e-04 1.072553377955664774e-03 -7.161369282469077537e-04 0.000000000000000000e+00 0.000000000000000000e+00 0.000000000000000000e+00 0.000000000000000000e+00
1.427634586042549472e+03 -6.321125586362400179e-04 3.079471185128029084e-04 1.044857195237595786e-03 -6.626770495945415521e-04 0.000000000000000000e+00 0.000000000000000000e+00 0.000000000000000000e+00 0.000000000000000000e+00
1.464624532912029508e+03 -5.057786513283015362e-04 2.970875910896198738e-04 1.034290090487283891e-03 -5.974533788059486995e-04 0.000000000000000000e+00 0.000000000000000000e+00 0.000000000000000000e+00 0.000000000000000000e+00
1.502572887614148158e+03 -4.061867383414155715e-04 2.954383983447694145e-04 1.022376232175478466e-03 -5.543492078808133538e-04 0.000000000000000000e+00 0.000000000000000000e+00 0.000000000000000000e+00 0.000000000000000000e+00
1.541504482452040520e+03 -3.193291109241605140e-04 2.985152510057036460e-04 1.010807374698041976e-03 -4.833131048638366614e-04 0.000000000000000000e+00 0.000000000000000000e+00 0.000000000000000000e+00 0.000000000000000000e+00
1.581444793132680616e+03 -2.228275220446694963e-04 2.996299727779315990e-04 1.008929119269077676e-03 -4.492340072553694438e-04 0.000000000000000000e+00 0.000000000000000000e+00 0.000000000000000000e+00 0.000000000000000000e+00
1.622419955437448607e+03 -1.150634554113585191e-04 2.952380082613239383e-04 9.984218482726829862e-04 -4.009646880441136729e-04 0.000000000000000000e+00 0.000000000000000000e+00 0.000000000000000000e+00 0.000000000000000000e+00
1.664456782324625920e+03 -6.382160387972044048e-06 2.929187214554369802e-04 1.008472700564715671e-03 -3.422447350373056100e-04 0.000000000000000000e+00 0.000000000000000000e+00 0.000000000000000000e+00 0.000000000000000000e+00
1.707582781475014372e+03 8.883608231055160496e-05 2.941551670062824385e-04 9.961763569360649988e-04 -2.896049157096711765e-04 0.000000000000000000e+00 0.000000000000000000e+00 0.000000000000000000e+00 0.000000000000000000e+00
1.751826173292167368e+03 1.995088701990920259e-04 2.886531735664085762e-04 9.675540585616192310e-04 -2.204301741687942164e-04 0.000000000000000000e+00 0.000000000000000000e+00 0.000000000000000000e+00 0.000000000000000000e+00
1.797215909369010433e+03 3.278940712491703702e-04 2.891526326717406658e-04 9.748007900853647044e-04 -1.713214788752176595e-04 0.000000000000000000e+00 0.000000000000000000e+00 0.000000000000000000e+00 0.000000000000000000e+00
1.843781691432912567e+03 4.313829558952331504e-04 2.946992525897062501e-04 9.730943289855617517e-04 -1.166862367825613998e-04 0.000000000000000000e+00 0.000000000000000000e+00 0.000000000000000000e+00 0.000000000000000000e+00
1.891553990781641687e+03 5.611654367438725921e-04 3.048843615182288223e-04 1.006489502935935471e-03 -4.717692040119788758e-05 0.000000000000000000e+00 0.000000000000000000e+00 0.000000000000000000e+00 0.000000000000000000e+00
1.940564068222901142e+03 6.994987916129143286e-04 3.158268451537309704e-04 1.031153191403778608e-03 7.002873875879129461e-07 0.000000000000000000e+00 0.000000000000000000e+00 0.000000000000000000e+00 0.000000000000000000e+00
1.990843994530493774e+03 7.946530953136797830e-04 3.130476337808108726e-04 1.032596116682653765e-03 6.353565586446982430e-05 0.000000000000000000e+00 0.000000000000000000e+00 0.000000000000000000e+00 0.000000000000000000e+00
2.042426671430501756e+03 9.091864206790331452e-04 3.179621049719778087e-04 1.045241128492789898e-03 1.371470778910020046e-04 0.000000000000000000e+00 0.000000000000000000e+00 0.000000000000000000e+00 0.000000000000000000e+00
2.095345853131225340e+03 1.059397515902229473e-03 3.325466256989691692e-04 1.087138550865036826e-03 1.938306787870985566e-04 0.000000000000000000e+00 0.000000000000000000e+00 0.000000000000000000e+00 0.000000000000000000e+00
2.149636168410966093e+03 1.245615126320297802e-03 3.557668540293644076e-04 1.166966051036593972e-03 2.647725054599144078e-04 0.000000000000000000e+00 0.000000000000000000e+00 0.000000000000000000e+00 0.000000000000000000e+00
2.205333143278082389e+03 1.447090396961467655e-03 3.848053001201438513e-04 1.249933670544046450e-03 3.484449323855430677e-04 0.000000000000000000e+00 0.000000000000000000e+00 0.000000000000000000e+00 0.000000000000000000e+00
2.262473224218183987e+03 1.761892924586697931e-03 4.323315314296209493e-04 1.418867029307682454e-03 4.627263779835707677e-04 0.000000000000000000e+00 0.000000000000000000e+00 0.000000000000000000e+00 0.000000000000000000e+00
2.321093802043661981e+03 2.065699566926206335e-03 4.850150920387667893e-04 1.550201363256786379e-03 5.620805517462413182e-04 0.000000000000000000e+00 0.000000000000000000e+00 0.000000000000000000e+00 0.000000000000000000e+00
2.381233236361148556e+03 2.312660020189264559e-03 5.164884308121298452e-04 1.679183388948169570e-03 6.526485323839252778e-04 0.000000000000000000e+00 0.000000000000000000e+00 0.000000000000000000e+00 0.000000000000000000e+00
2.442930880672924104e+03 2.717566916637712601e-03 5.881110906159598252e-04 1.916717844766345491e-03 8.137440156389722477e-04 0.000000000000000000e+00 0.000000000000000000e+00 0.000000000000000000e+00 0.000000000000000000e+00
2.506227108128715372e+03 3.165651143829759095e-03 6.624845213806634372e-04 2.140381015827629366e-03 9.514383600635878662e-04 0.000000000000000000e+00 0.000000000000000000e+00 0.000000000000000000e+00 0.000000000000000000e+00
2.571163337944717568e+03 3.542908377642735654e-03 7.325860911400035530e-04 2.367801822063864137e-03 1.100383750231434185e-03 0.000000000000000000e+00 0.000000000000000000e+00 0.000000000000000000e+00 0.000000000000000000e+00
2.637782062507126739e+03 3.940212757011870084e-03 7.988964951943783440e-04 2.593897208701398133e-03 1.233902380347329198e-03 0.000000000000000000e+00 0.000000000000000000e+00 0.000000000000000000e+00 0.000000000000000000e+00
2.706126875177907550e+03 4.353976700319865320e-03 8.754351701150991276e-04 2.838772091009038670e-03 1.370257932331078602e-03 0.000000000000000000e+00 0.000000000000000000e+00 0.000000000000000000e+00 0.000000000000000000e+00
2.776242498821056870e+03 4.926347999106325641e-03 9.926670454475769369e-04 3.223067436923275804e-03 1.555547706447253133e-03 0.000000000000000000e+00 0.000000000000000000e+00 0.000000000000000000e+00 0.000000000000000000e+00
2.848174815067930922e+03 5.794300349969507859e-03 1.174394168868804185e-03 3.810418651002304893e-03 1.850188841682442065e-03 0.000000000000000000e+00 0.000000000000000000e+00 0.000000000000000000e+00 0.000000000000000000e+00
2.921970894340850464e+03 6.114544775068100381e-03 1.240195802008372183e-03 4.018234071931452850e-03 1.940200090146630609e-03 0.000000000000000000e+00 0.000000000000000000e+00 0.000000000000000000e+00 0.000000000000000000e+00
2.997679026654628615e+03 5.660093022681944586e-03 1.159274446188292545e-03 3.751877529347332277e-03 1.804171899660890520e-03 0.000000000000000000e+00 0.000000000000000000e+00 0.000000000000000000e+00 0.000000000000000000e+00
3.075348753216159366e+03 5.265856109724474481e-03 1.085614250503591114e-03 3.505652343708526644e-03 1.668348455315437316e-03 0.000000000000000000e+00 0.000000000000000000e+00 0.000000000000000000e+00 0.000000000000000000e+00
3.155030898842747774e+03 5.316620893904995364e-03 1.087300922882912914e-03 3.527036715597909808e-03 1.664989168167685472e-03 0.000000000000000000e+00 0.000000000000000000e+00 0.000000000000000000e+00 0.000000000000000000e+00
3.236777605220371697e+03 5.746969267769266171e-03 1.184257000622887784e-03 3.833631952153946504e-03 1.795196964925552859e-03 0.000000000000000000e+00 0.000000000000000000e+00 0.000000000000000000e+00 0.000000000000000000e+00
3.320642365023729326e+03 6.340706540967204832e-03 1.316378064830554763e-03 4.246190114397605485e-03 1.987770199590076052e-03 0.000000000000000000e+00 0.000000000000000000e+00 0.000000000000000000e+00 0.000000000000000000e+00
3.406680056920268726e+03 6.618413617454243190e-03 1.379875180116942003e-03 4.445049638282385675e-03 2.080775737524469433e-03 0.000000000000000000e+00 0.000000000000000000e+00 0.000000000000000000e+00 0.000000000000000000e+00
3.494946981481209605e+03 7.101847087509052629e-03 1.485453474906335905e-03 4.805034848264719445e-03 2.249533658593634231e-03 0.000000000000000000e+00 0.000000000000000000e+00 0.000000000000000000e+00 0.000000000000000000e+00
3.585500898022978618e+03 7.960704624585731096e-03 1.650002390489892614e-03 5.366132466309288945e-03 2.512792170823663612e-03 0.000000000000000000e+00 0.000000000000000000e+00 0.000000000000000000e+00 0.000000000000000000e+00
3.678401062403270316e+03 8.780520655319961482e-03 1.815241227529767369e-03 5.889258089616063348e-03 2.769052156396049468e-03 0.000000000000000000e+00 0.000000000000000000e+00 0.000000000000000000e+00 0.000000000000000000e+00
3.773708265796346041e+03 1.019401583208435526e-02 2.086823066469103462e-03 6.783144980573544737e-03 3.225326080794320167e-03 0.000000000000000000e+00 0.000000000000000000e+00 0.000000000000000000e+00 0.000000000000000000e+00
3.871484874472989759e+03 1.233092041900201233e-02 2.525005092113658152e-03 8.180215521000223228e-03 3.941157191105962472e-03 0.000000000000000000e+00 0.000000000000000000e+00 0.000000000000000000e+00 0.000000000000000000e+00
3.971794870611233364e+03 1.451347973178428348e-02 2.961388665554327924e-03 9.620446177754210168e-03 4.678778621314454503e-03 0.000000000000000000e+00 0.000000000000000000e+00 0.000000000000000000e+00 0.000000000000000000e+00
4.074703894164410485e+03 1.649503292734800716e-02 3.329460996521481451e-03 1.074675977652412434e-02 5.334308731444225779e-03 0.000000000000000000e+00 0.000000000000000000e+00 0.000000000000000000e+00 0.000000000000000000e+00
4.180279285814052855e+03 1.954619798258327990e-02 3.887050139768889138e-03 1.252693368653835446e-02 6.360055974085014781e-03 0.000000000000000000e+00 0.000000000000000000e+00 0.000000000000000000e+00 0.000000000000000000e+00
4.288590131035647573e+03 2.301008126190319178e-02 4.525102223971673270e-03 1.463528822109710220e-02 7.620169625143384529e-03 0.000000000000000000e+00 0.000000000000000000e+00 0.000000000000000000e+00 0.000000000000000000e+00
4.399707305306218586e+03 2.683757135920970816e-02 5.196466990057543173e-03 1.680708202717474953e-02 8.923491160478040987e-03 0.000000000000000000e+00 0.000000000000000000e+00 0.000000000000000000e+00 0.000000000000000000e+00
4.513703520483152715e+03 3.299361209860893207e-02 6.299939478276540827e-03 2.042163174241796997e-02 1.104914253979667055e-02 0.000000000000000000e+00 0.000000000000000000e+00 0.000000000000000000e+00 0.000000000000000000e+00
4.630653372384746945e+03 3.908033617713468910e-02 7.410403132941036954e-03 2.386522029902586606e-02 1.324062787851703650e-02 0.000000000000000000e+00 0.000000000000000000e+00 0.000000000000000000e+00 0.000000000000000000e+00
4.750633389603513024e+03 4.517602235867464178e-02 8.338580317196635228e-03 2.687530135154875960e-02 1.539089632891707179e-02 0.000000000000000000e+00 0.000000000000000000e+00 0.000000000000000000e+00 0.000000000000000000e+00
4.873722083584322718e+03 5.394745893528881536e-02 9.767505933489071743e-03 3.167764428346677569e-02 1.850980794330545423e-02 0.000000000000000000e+00 0.000000000000000000e+00 0.000000000000000000e+00 0.000000000000000000e+00
4.999999999999999091e+03 6.247151103137617290e-02 1.113531527559545597e-02 3.579276777305865492e-02 2.171630233717059683e-02 0.000000000000000000e+00 0.000000000000000000e+00 0.000000000000000000e+00 0.000000000000000000e+00
